<?xml version="1.0"?>
<opencv_storage>
<cascade>
  <stageType>BOOST</stageType>
  <featureType>HAAR</featureType>
  <height>24</height>
  <width>36</width>
  <stageParams>
    <boostType>GAB</boostType>
    <minHitRate>9.9500000476837158e-01</minHitRate>
    <maxFalseAlarm>5.0000000000000000e-01</maxFalseAlarm>
    <weightTrimRate>9.4999999999999996e-01</weightTrimRate>
    <maxDepth>1</maxDepth>
    <maxWeakCount>100</maxWeakCount></stageParams>
  <featureParams>
    <maxCatCount>0</maxCatCount>
    <featSize>1</featSize>
    <mode>BASIC</mode></featureParams>
  <stageNum>20</stageNum>
  <stages>
    <!-- stage 0 -->
    <_>
      <maxWeakCount>3</maxWeakCount>
      <stageThreshold>-8.1779390573501587e-01</stageThreshold>
      <weakClassifiers>
        <_>
          <internalNodes>
            0 -1 17 -4.3103907955810428e-05</internalNodes>
          <leafValues>
            6.9811320304870605e-01 -8.8349515199661255e-01</leafValues></_>
        <_>
          <internalNodes>
            0 -1 10 -3.0110585503280163e-03</internalNodes>
          <leafValues>
            7.0816648006439209e-01 -8.1614714860916138e-01</leafValues></_>
        <_>
          <internalNodes>
            0 -1 91 8.7603516876697540e-03</internalNodes>
          <leafValues>
            -5.8023858070373535e-01 8.8184833526611328e-01</leafValues></_></weakClassifiers></_>
    <!-- stage 1 -->
    <_>
      <maxWeakCount>4</maxWeakCount>
      <stageThreshold>-9.9723482131958008e-01</stageThreshold>
      <weakClassifiers>
        <_>
          <internalNodes>
            0 -1 99 4.1964475065469742e-02</internalNodes>
          <leafValues>
            -6.7857140302658081e-01 6.0824739933013916e-01</leafValues></_>
        <_>
          <internalNodes>
            0 -1 60 5.1860421895980835e-02</internalNodes>
          <leafValues>
            -4.1377052664756775e-01 8.2459771633148193e-01</leafValues></_>
        <_>
          <internalNodes>
            0 -1 92 4.2134467512369156e-03</internalNodes>
          <leafValues>
            -3.5735219717025757e-01 8.0829846858978271e-01</leafValues></_>
        <_>
          <internalNodes>
            0 -1 34 3.2256981357932091e-03</internalNodes>
          <leafValues>
            -7.1395009756088257e-01 4.5245933532714844e-01</leafValues></_></weakClassifiers></_>
    <!-- stage 2 -->
    <_>
      <maxWeakCount>5</maxWeakCount>
      <stageThreshold>-5.3625977039337158e-01</stageThreshold>
      <weakClassifiers>
        <_>
          <internalNodes>
            0 -1 8 -9.7147986292839050e-02</internalNodes>
          <leafValues>
            6.5116280317306519e-01 -5.9349590539932251e-01</leafValues></_>
        <_>
          <internalNodes>
            0 -1 3 -4.1656885296106339e-02</internalNodes>
          <leafValues>
            7.3391425609588623e-01 -4.5023167133331299e-01</leafValues></_>
        <_>
          <internalNodes>
            0 -1 109 2.4870332708815113e-05</internalNodes>
          <leafValues>
            3.6732852458953857e-01 -8.0877971649169922e-01</leafValues></_>
        <_>
          <internalNodes>
            0 -1 18 -8.4183982107788324e-04</internalNodes>
          <leafValues>
            6.7161923646926880e-01 -4.5395451784133911e-01</leafValues></_>
        <_>
          <internalNodes>
            0 -1 103 1.4079626649618149e-02</internalNodes>
          <leafValues>
            -5.2907741069793701e-01 6.4462834596633911e-01</leafValues></_></weakClassifiers></_>
    <!-- stage 3 -->
    <_>
      <maxWeakCount>5</maxWeakCount>
      <stageThreshold>-6.6686254739761353e-01</stageThreshold>
      <weakClassifiers>
        <_>
          <internalNodes>
            0 -1 37 1.9980255514383316e-02</internalNodes>
          <leafValues>
            -5.1470589637756348e-01 7.2602736949920654e-01</leafValues></_>
        <_>
          <internalNodes>
            0 -1 24 -1.2712581083178520e-02</internalNodes>
          <leafValues>
            4.7104880213737488e-01 -7.0779663324356079e-01</leafValues></_>
        <_>
          <internalNodes>
            0 -1 96 1.0466194711625576e-02</internalNodes>
          <leafValues>
            -6.2542229890823364e-01 4.3107837438583374e-01</leafValues></_>
        <_>
          <internalNodes>
            0 -1 62 1.0462034260854125e-03</internalNodes>
          <leafValues>
            -5.2571332454681396e-01 5.9428209066390991e-01</leafValues></_>
        <_>
          <internalNodes>
            0 -1 71 4.5159921050071716e-02</internalNodes>
          <leafValues>
            -4.6972051262855530e-01 6.1306327581405640e-01</leafValues></_></weakClassifiers></_>
    <!-- stage 4 -->
    <_>
      <maxWeakCount>6</maxWeakCount>
      <stageThreshold>-7.7045601606369019e-01</stageThreshold>
      <weakClassifiers>
        <_>
          <internalNodes>
            0 -1 54 1.7371486872434616e-02</internalNodes>
          <leafValues>
            -4.1558441519737244e-01 8.5454547405242920e-01</leafValues></_>
        <_>
          <internalNodes>
            0 -1 7 -3.0091781169176102e-02</internalNodes>
          <leafValues>
            4.8583939671516418e-01 -5.8554923534393311e-01</leafValues></_>
        <_>
          <internalNodes>
            0 -1 26 -2.4295184016227722e-01</internalNodes>
          <leafValues>
            8.5367923974990845e-01 -3.2911446690559387e-01</leafValues></_>
        <_>
          <internalNodes>
            0 -1 1 6.0690720565617085e-03</internalNodes>
          <leafValues>
            3.0112648010253906e-01 -9.0844416618347168e-01</leafValues></_>
        <_>
          <internalNodes>
            0 -1 87 9.2387560289353132e-04</internalNodes>
          <leafValues>
            -3.9393961429595947e-01 6.6387671232223511e-01</leafValues></_>
        <_>
          <internalNodes>
            0 -1 55 1.9952490925788879e-02</internalNodes>
          <leafValues>
            -4.0930488705635071e-01 6.5260529518127441e-01</leafValues></_></weakClassifiers></_>
    <!-- stage 5 -->
    <_>
      <maxWeakCount>6</maxWeakCount>
      <stageThreshold>-7.8709638118743896e-01</stageThreshold>
      <weakClassifiers>
        <_>
          <internalNodes>
            0 -1 47 -5.0778690725564957e-02</internalNodes>
          <leafValues>
            6.9999998807907104e-01 -3.9597314596176147e-01</leafValues></_>
        <_>
          <internalNodes>
            0 -1 35 -9.5016893465071917e-04</internalNodes>
          <leafValues>
            4.8005867004394531e-01 -4.9567222595214844e-01</leafValues></_>
        <_>
          <internalNodes>
            0 -1 2 -4.4739050790667534e-03</internalNodes>
          <leafValues>
            5.7269793748855591e-01 -4.1563194990158081e-01</leafValues></_>
        <_>
          <internalNodes>
            0 -1 22 4.3457197025418282e-03</internalNodes>
          <leafValues>
            2.7446109056472778e-01 -9.0875679254531860e-01</leafValues></_>
        <_>
          <internalNodes>
            0 -1 48 1.8273465102538466e-03</internalNodes>
          <leafValues>
            -3.5022607445716858e-01 6.9077479839324951e-01</leafValues></_>
        <_>
          <internalNodes>
            0 -1 79 -7.7580136712640524e-04</internalNodes>
          <leafValues>
            7.9403924942016602e-01 -3.7978494167327881e-01</leafValues></_></weakClassifiers></_>
    <!-- stage 6 -->
    <_>
      <maxWeakCount>6</maxWeakCount>
      <stageThreshold>-7.0185846090316772e-01</stageThreshold>
      <weakClassifiers>
        <_>
          <internalNodes>
            0 -1 49 3.1240742653608322e-02</internalNodes>
          <leafValues>
            -5.1351350545883179e-01 4.0816327929496765e-01</leafValues></_>
        <_>
          <internalNodes>
            0 -1 21 6.9436728954315186e-03</internalNodes>
          <leafValues>
            -3.7768262624740601e-01 7.2377830743789673e-01</leafValues></_>
        <_>
          <internalNodes>
            0 -1 106 -9.6312855021096766e-05</internalNodes>
          <leafValues>
            -8.0029457807540894e-01 3.2632467150688171e-01</leafValues></_>
        <_>
          <internalNodes>
            0 -1 95 2.5979619473218918e-02</internalNodes>
          <leafValues>
            -3.7399491667747498e-01 6.3818055391311646e-01</leafValues></_>
        <_>
          <internalNodes>
            0 -1 93 -2.2706245072185993e-03</internalNodes>
          <leafValues>
            8.3256995677947998e-01 -2.9196035861968994e-01</leafValues></_>
        <_>
          <internalNodes>
            0 -1 81 -3.4540018532425165e-04</internalNodes>
          <leafValues>
            6.4301073551177979e-01 -3.9270851016044617e-01</leafValues></_></weakClassifiers></_>
    <!-- stage 7 -->
    <_>
      <maxWeakCount>4</maxWeakCount>
      <stageThreshold>-8.9858664432540536e-04</stageThreshold>
      <weakClassifiers>
        <_>
          <internalNodes>
            0 -1 108 -5.1524788432288915e-05</internalNodes>
          <leafValues>
            -8.9473682641983032e-01 2.2368420660495758e-01</leafValues></_>
        <_>
          <internalNodes>
            0 -1 20 1.2711959891021252e-02</internalNodes>
          <leafValues>
            2.4941566586494446e-01 -9.0522551536560059e-01</leafValues></_>
        <_>
          <internalNodes>
            0 -1 38 9.5209150458686054e-05</internalNodes>
          <leafValues>
            3.5060229897499084e-01 -7.9063332080841064e-01</leafValues></_>
        <_>
          <internalNodes>
            0 -1 83 -7.6981541496934369e-06</internalNodes>
          <leafValues>
            -8.2460075616836548e-01 3.4077098965644836e-01</leafValues></_></weakClassifiers></_>
    <!-- stage 8 -->
    <_>
      <maxWeakCount>6</maxWeakCount>
      <stageThreshold>-9.8723942041397095e-01</stageThreshold>
      <weakClassifiers>
        <_>
          <internalNodes>
            0 -1 94 1.0797138512134552e-01</internalNodes>
          <leafValues>
            -5.0413221120834351e-01 5.0000000000000000e-01</leafValues></_>
        <_>
          <internalNodes>
            0 -1 4 7.3451646603643894e-03</internalNodes>
          <leafValues>
            3.3959126472473145e-01 -6.6290807723999023e-01</leafValues></_>
        <_>
          <internalNodes>
            0 -1 64 5.9402151964604855e-04</internalNodes>
          <leafValues>
            -4.2230913043022156e-01 5.2718889713287354e-01</leafValues></_>
        <_>
          <internalNodes>
            0 -1 111 -1.5093282854650170e-05</internalNodes>
          <leafValues>
            -7.2377592325210571e-01 3.4978064894676208e-01</leafValues></_>
        <_>
          <internalNodes>
            0 -1 88 1.1827207636088133e-03</internalNodes>
          <leafValues>
            -3.4086066484451294e-01 6.9524097442626953e-01</leafValues></_>
        <_>
          <internalNodes>
            0 -1 73 4.4472509762272239e-04</internalNodes>
          <leafValues>
            -3.7185442447662354e-01 5.5005896091461182e-01</leafValues></_></weakClassifiers></_>
    <!-- stage 9 -->
    <_>
      <maxWeakCount>6</maxWeakCount>
      <stageThreshold>-1.4453624188899994e-01</stageThreshold>
      <weakClassifiers>
        <_>
          <internalNodes>
            0 -1 40 -2.5496825575828552e-02</internalNodes>
          <leafValues>
            8.8235294818878174e-01 -2.6857143640518188e-01</leafValues></_>
        <_>
          <internalNodes>
            0 -1 14 -8.5844444110989571e-03</internalNodes>
          <leafValues>
            4.3932691216468811e-01 -4.6076646447181702e-01</leafValues></_>
        <_>
          <internalNodes>
            0 -1 67 -1.2998830527067184e-02</internalNodes>
          <leafValues>
            4.7297286987304688e-01 -4.7398000955581665e-01</leafValues></_>
        <_>
          <internalNodes>
            0 -1 57 -1.4948125928640366e-02</internalNodes>
          <leafValues>
            -8.6108595132827759e-01 2.4425598978996277e-01</leafValues></_>
        <_>
          <internalNodes>
            0 -1 45 -5.1941508427262306e-03</internalNodes>
          <leafValues>
            -8.2993090152740479e-01 2.4047337472438812e-01</leafValues></_>
        <_>
          <internalNodes>
            0 -1 44 1.5108195133507252e-02</internalNodes>
          <leafValues>
            -3.2604110240936279e-01 7.8094011545181274e-01</leafValues></_></weakClassifiers></_>
    <!-- stage 10 -->
    <_>
      <maxWeakCount>5</maxWeakCount>
      <stageThreshold>-7.8384286165237427e-01</stageThreshold>
      <weakClassifiers>
        <_>
          <internalNodes>
            0 -1 78 -2.9194762464612722e-04</internalNodes>
          <leafValues>
            2.9203540086746216e-01 -5.2083331346511841e-01</leafValues></_>
        <_>
          <internalNodes>
            0 -1 110 -4.3112635466968641e-05</internalNodes>
          <leafValues>
            -7.5290161371231079e-01 2.3063561320304871e-01</leafValues></_>
        <_>
          <internalNodes>
            0 -1 31 -2.9772732523269951e-04</internalNodes>
          <leafValues>
            -8.9523476362228394e-01 2.3408721387386322e-01</leafValues></_>
        <_>
          <internalNodes>
            0 -1 65 1.6684140427969396e-04</internalNodes>
          <leafValues>
            -4.1051617264747620e-01 5.2201724052429199e-01</leafValues></_>
        <_>
          <internalNodes>
            0 -1 75 3.9712758734822273e-04</internalNodes>
          <leafValues>
            -3.1721615791320801e-01 6.3569414615631104e-01</leafValues></_></weakClassifiers></_>
    <!-- stage 11 -->
    <_>
      <maxWeakCount>5</maxWeakCount>
      <stageThreshold>-5.3692162036895752e-01</stageThreshold>
      <weakClassifiers>
        <_>
          <internalNodes>
            0 -1 15 -1.7149139195680618e-02</internalNodes>
          <leafValues>
            2.9508197307586670e-01 -6.0919541120529175e-01</leafValues></_>
        <_>
          <internalNodes>
            0 -1 86 -2.5710405316203833e-03</internalNodes>
          <leafValues>
            4.8088994622230530e-01 -3.7742727994918823e-01</leafValues></_>
        <_>
          <internalNodes>
            0 -1 59 6.8758605048060417e-03</internalNodes>
          <leafValues>
            2.6942247152328491e-01 -6.8447124958038330e-01</leafValues></_>
        <_>
          <internalNodes>
            0 -1 36 -3.9066042751073837e-02</internalNodes>
          <leafValues>
            6.2983763217926025e-01 -3.2141408324241638e-01</leafValues></_>
        <_>
          <internalNodes>
            0 -1 28 -1.2037856504321098e-04</internalNodes>
          <leafValues>
            6.7334043979644775e-01 -3.0700820684432983e-01</leafValues></_></weakClassifiers></_>
    <!-- stage 12 -->
    <_>
      <maxWeakCount>6</maxWeakCount>
      <stageThreshold>-8.0378174781799316e-01</stageThreshold>
      <weakClassifiers>
        <_>
          <internalNodes>
            0 -1 11 -5.7182610034942627e-02</internalNodes>
          <leafValues>
            4.8051947355270386e-01 -4.0909090638160706e-01</leafValues></_>
        <_>
          <internalNodes>
            0 -1 98 3.9515702519565821e-04</internalNodes>
          <leafValues>
            2.4042657017707825e-01 -8.7802553176879883e-01</leafValues></_>
        <_>
          <internalNodes>
            0 -1 90 4.4600712135434151e-03</internalNodes>
          <leafValues>
            -2.9212453961372375e-01 7.5395894050598145e-01</leafValues></_>
        <_>
          <internalNodes>
            0 -1 51 -7.7783726155757904e-03</internalNodes>
          <leafValues>
            8.2392895221710205e-01 -1.8153432011604309e-01</leafValues></_>
        <_>
          <internalNodes>
            0 -1 46 1.1209335178136826e-02</internalNodes>
          <leafValues>
            2.1212534606456757e-01 -8.6552995443344116e-01</leafValues></_>
        <_>
          <internalNodes>
            0 -1 66 -1.1408730596303940e-01</internalNodes>
          <leafValues>
            5.3437477350234985e-01 -3.7358388304710388e-01</leafValues></_></weakClassifiers></_>
    <!-- stage 13 -->
    <_>
      <maxWeakCount>6</maxWeakCount>
      <stageThreshold>-6.6266226768493652e-01</stageThreshold>
      <weakClassifiers>
        <_>
          <internalNodes>
            0 -1 107 9.0823322534561157e-03</internalNodes>
          <leafValues>
            1.0344827920198441e-01 -1.</leafValues></_>
        <_>
          <internalNodes>
            0 -1 43 -6.8047153763473034e-04</internalNodes>
          <leafValues>
            4.7346517443656921e-01 -3.7668111920356750e-01</leafValues></_>
        <_>
          <internalNodes>
            0 -1 25 1.7172847947222181e-05</internalNodes>
          <leafValues>
            3.2869663834571838e-01 -7.5304168462753296e-01</leafValues></_>
        <_>
          <internalNodes>
            0 -1 42 1.0640833061188459e-03</internalNodes>
          <leafValues>
            -5.1553964614868164e-01 4.2276918888092041e-01</leafValues></_>
        <_>
          <internalNodes>
            0 -1 100 -5.1085615268675610e-05</internalNodes>
          <leafValues>
            6.3519930839538574e-01 -3.4790650010108948e-01</leafValues></_>
        <_>
          <internalNodes>
            0 -1 63 2.2908453829586506e-03</internalNodes>
          <leafValues>
            -5.6493359804153442e-01 3.7691208720207214e-01</leafValues></_></weakClassifiers></_>
    <!-- stage 14 -->
    <_>
      <maxWeakCount>6</maxWeakCount>
      <stageThreshold>-7.0796370506286621e-01</stageThreshold>
      <weakClassifiers>
        <_>
          <internalNodes>
            0 -1 23 -3.4668836742639542e-03</internalNodes>
          <leafValues>
            3.0434781312942505e-01 -5.5319148302078247e-01</leafValues></_>
        <_>
          <internalNodes>
            0 -1 32 -7.0499272624147125e-06</internalNodes>
          <leafValues>
            -4.1959604620933533e-01 4.2198222875595093e-01</leafValues></_>
        <_>
          <internalNodes>
            0 -1 80 1.0373030789196491e-02</internalNodes>
          <leafValues>
            2.1413496136665344e-01 -7.7518326044082642e-01</leafValues></_>
        <_>
          <internalNodes>
            0 -1 0 4.4074986362829804e-05</internalNodes>
          <leafValues>
            2.0859770476818085e-01 -8.4254175424575806e-01</leafValues></_>
        <_>
          <internalNodes>
            0 -1 27 1.6636085929349065e-03</internalNodes>
          <leafValues>
            -3.0712193250656128e-01 7.0502930879592896e-01</leafValues></_>
        <_>
          <internalNodes>
            0 -1 6 -4.3599735363386571e-05</internalNodes>
          <leafValues>
            -7.0832622051239014e-01 2.9808500409126282e-01</leafValues></_></weakClassifiers></_>
    <!-- stage 15 -->
    <_>
      <maxWeakCount>7</maxWeakCount>
      <stageThreshold>-4.1131117939949036e-01</stageThreshold>
      <weakClassifiers>
        <_>
          <internalNodes>
            0 -1 50 -3.2059267163276672e-02</internalNodes>
          <leafValues>
            1.9444444775581360e-01 -6.9230771064758301e-01</leafValues></_>
        <_>
          <internalNodes>
            0 -1 9 -5.5802591145038605e-02</internalNodes>
          <leafValues>
            -7.3761588335037231e-01 1.6839806735515594e-01</leafValues></_>
        <_>
          <internalNodes>
            0 -1 89 -6.1868719058111310e-05</internalNodes>
          <leafValues>
            -7.4479115009307861e-01 2.1367181837558746e-01</leafValues></_>
        <_>
          <internalNodes>
            0 -1 53 -1.5570925315842032e-03</internalNodes>
          <leafValues>
            5.6506645679473877e-01 -4.0543943643569946e-01</leafValues></_>
        <_>
          <internalNodes>
            0 -1 29 6.7384615249466151e-05</internalNodes>
          <leafValues>
            2.4595357477664948e-01 -6.7098236083984375e-01</leafValues></_>
        <_>
          <internalNodes>
            0 -1 5 -4.7911405563354492e-02</internalNodes>
          <leafValues>
            4.2062175273895264e-01 -4.6635004878044128e-01</leafValues></_>
        <_>
          <internalNodes>
            0 -1 72 1.1878955410793424e-04</internalNodes>
          <leafValues>
            -3.6198961734771729e-01 6.6740787029266357e-01</leafValues></_></weakClassifiers></_>
    <!-- stage 16 -->
    <_>
      <maxWeakCount>7</maxWeakCount>
      <stageThreshold>-4.5599696040153503e-01</stageThreshold>
      <weakClassifiers>
        <_>
          <internalNodes>
            0 -1 39 -2.6297901058569551e-04</internalNodes>
          <leafValues>
            3.5353535413742065e-01 -4.7272726893424988e-01</leafValues></_>
        <_>
          <internalNodes>
            0 -1 30 -4.1411474347114563e-02</internalNodes>
          <leafValues>
            -5.8729833364486694e-01 2.8051564097404480e-01</leafValues></_>
        <_>
          <internalNodes>
            0 -1 77 7.9925998579710722e-04</internalNodes>
          <leafValues>
            -2.5165894627571106e-01 7.0701760053634644e-01</leafValues></_>
        <_>
          <internalNodes>
            0 -1 41 -1.6085766255855560e-02</internalNodes>
          <leafValues>
            4.4319975376129150e-01 -4.2344096302986145e-01</leafValues></_>
        <_>
          <internalNodes>
            0 -1 82 1.2480154633522034e-02</internalNodes>
          <leafValues>
            2.9271388053894043e-01 -7.8980612754821777e-01</leafValues></_>
        <_>
          <internalNodes>
            0 -1 13 2.4519814178347588e-04</internalNodes>
          <leafValues>
            -3.2101970911026001e-01 5.9800463914871216e-01</leafValues></_>
        <_>
          <internalNodes>
            0 -1 74 -1.4123517030384392e-04</internalNodes>
          <leafValues>
            4.9111244082450867e-01 -3.8546895980834961e-01</leafValues></_></weakClassifiers></_>
    <!-- stage 17 -->
    <_>
      <maxWeakCount>7</maxWeakCount>
      <stageThreshold>-7.4473851919174194e-01</stageThreshold>
      <weakClassifiers>
        <_>
          <internalNodes>
            0 -1 16 -1.8934882973553613e-05</internalNodes>
          <leafValues>
            -5.8974361419677734e-01 2.2137404978275299e-01</leafValues></_>
        <_>
          <internalNodes>
            0 -1 69 4.1645532473921776e-04</internalNodes>
          <leafValues>
            -3.6414054036140442e-01 3.9937922358512878e-01</leafValues></_>
        <_>
          <internalNodes>
            0 -1 58 -2.4663228541612625e-02</internalNodes>
          <leafValues>
            -8.8866984844207764e-01 1.7487342655658722e-01</leafValues></_>
        <_>
          <internalNodes>
            0 -1 56 5.9890084230573848e-05</internalNodes>
          <leafValues>
            2.0335559546947479e-01 -7.7658557891845703e-01</leafValues></_>
        <_>
          <internalNodes>
            0 -1 61 -5.6515429168939590e-02</internalNodes>
          <leafValues>
            8.9620041847229004e-01 -2.6558059453964233e-01</leafValues></_>
        <_>
          <internalNodes>
            0 -1 105 -6.7121532083547208e-06</internalNodes>
          <leafValues>
            -7.2799980640411377e-01 3.1414994597434998e-01</leafValues></_>
        <_>
          <internalNodes>
            0 -1 12 -8.3770141005516052e-02</internalNodes>
          <leafValues>
            7.0312869548797607e-01 -3.3728399872779846e-01</leafValues></_></weakClassifiers></_>
    <!-- stage 18 -->
    <_>
      <maxWeakCount>7</maxWeakCount>
      <stageThreshold>-5.7169449329376221e-01</stageThreshold>
      <weakClassifiers>
        <_>
          <internalNodes>
            0 -1 102 4.4849092955701053e-04</internalNodes>
          <leafValues>
            1.0843373835086823e-01 -8.1395345926284790e-01</leafValues></_>
        <_>
          <internalNodes>
            0 -1 101 1.8734587356448174e-02</internalNodes>
          <leafValues>
            1.8641330301761627e-01 -7.0738184452056885e-01</leafValues></_>
        <_>
          <internalNodes>
            0 -1 104 -1.7521542031317949e-03</internalNodes>
          <leafValues>
            3.0132684111595154e-01 -5.2608889341354370e-01</leafValues></_>
        <_>
          <internalNodes>
            0 -1 52 -3.5431969445198774e-04</internalNodes>
          <leafValues>
            8.1425720453262329e-01 -1.8310780823230743e-01</leafValues></_>
        <_>
          <internalNodes>
            0 -1 33 -9.3787248260923661e-06</internalNodes>
          <leafValues>
            -5.4308933019638062e-01 3.4787669777870178e-01</leafValues></_>
        <_>
          <internalNodes>
            0 -1 97 1.7560284584760666e-02</internalNodes>
          <leafValues>
            -2.0253260433673859e-01 7.8016340732574463e-01</leafValues></_>
        <_>
          <internalNodes>
            0 -1 70 -6.7191384732723236e-04</internalNodes>
          <leafValues>
            6.1092287302017212e-01 -2.3630948364734650e-01</leafValues></_></weakClassifiers></_>
    <!-- stage 19 -->
    <_>
      <maxWeakCount>5</maxWeakCount>
      <stageThreshold>-7.4227797985076904e-01</stageThreshold>
      <weakClassifiers>
        <_>
          <internalNodes>
            0 -1 76 4.2245332151651382e-03</internalNodes>
          <leafValues>
            1.1377245187759399e-01 -8.5714286565780640e-01</leafValues></_>
        <_>
          <internalNodes>
            0 -1 85 -5.3629244212061167e-04</internalNodes>
          <leafValues>
            5.0832349061965942e-01 -3.9206990599632263e-01</leafValues></_>
        <_>
          <internalNodes>
            0 -1 68 -8.0361566506326199e-04</internalNodes>
          <leafValues>
            4.8903298377990723e-01 -3.8896298408508301e-01</leafValues></_>
        <_>
          <internalNodes>
            0 -1 84 -5.7155755348503590e-04</internalNodes>
          <leafValues>
            -8.5902929306030273e-01 1.8719209730625153e-01</leafValues></_>
        <_>
          <internalNodes>
            0 -1 19 6.8964175879955292e-03</internalNodes>
          <leafValues>
            -2.6220965385437012e-01 7.4872809648513794e-01</leafValues></_></weakClassifiers></_></stages>
  <features>
    <_>
      <rects>
        <_>
          0 0 2 6 -1.</_>
        <_>
          0 3 2 3 2.</_></rects>
      <tilted>0</tilted></_>
    <_>
      <rects>
        <_>
          0 0 2 18 -1.</_>
        <_>
          0 6 2 6 3.</_></rects>
      <tilted>0</tilted></_>
    <_>
      <rects>
        <_>
          0 0 21 2 -1.</_>
        <_>
          0 1 21 1 2.</_></rects>
      <tilted>0</tilted></_>
    <_>
      <rects>
        <_>
          0 0 29 6 -1.</_>
        <_>
          0 3 29 3 2.</_></rects>
      <tilted>0</tilted></_>
    <_>
      <rects>
        <_>
          0 0 30 22 -1.</_>
        <_>
          0 11 30 11 2.</_></rects>
      <tilted>0</tilted></_>
    <_>
      <rects>
        <_>
          0 1 30 10 -1.</_>
        <_>
          15 1 15 10 2.</_></rects>
      <tilted>0</tilted></_>
    <_>
      <rects>
        <_>
          0 2 2 3 -1.</_>
        <_>
          0 3 2 1 3.</_></rects>
      <tilted>0</tilted></_>
    <_>
      <rects>
        <_>
          0 2 16 6 -1.</_>
        <_>
          8 2 8 6 2.</_></rects>
      <tilted>0</tilted></_>
    <_>
      <rects>
        <_>
          0 2 16 13 -1.</_>
        <_>
          8 2 8 13 2.</_></rects>
      <tilted>0</tilted></_>
    <_>
      <rects>
        <_>
          0 2 10 22 -1.</_>
        <_>
          0 13 10 11 2.</_></rects>
      <tilted>0</tilted></_>
    <_>
      <rects>
        <_>
          0 7 12 5 -1.</_>
        <_>
          6 7 6 5 2.</_></rects>
      <tilted>0</tilted></_>
    <_>
      <rects>
        <_>
          0 7 14 6 -1.</_>
        <_>
          7 7 7 6 2.</_></rects>
      <tilted>0</tilted></_>
    <_>
      <rects>
        <_>
          0 7 36 3 -1.</_>
        <_>
          12 7 12 3 3.</_></rects>
      <tilted>0</tilted></_>
    <_>
      <rects>
        <_>
          0 10 10 2 -1.</_>
        <_>
          0 10 5 1 2.</_>
        <_>
          5 11 5 1 2.</_></rects>
      <tilted>0</tilted></_>
    <_>
      <rects>
        <_>
          0 11 28 1 -1.</_>
        <_>
          14 11 14 1 2.</_></rects>
      <tilted>0</tilted></_>
    <_>
      <rects>
        <_>
          0 13 14 6 -1.</_>
        <_>
          7 13 7 6 2.</_></rects>
      <tilted>0</tilted></_>
    <_>
      <rects>
        <_>
          0 14 1 9 -1.</_>
        <_>
          0 17 1 3 3.</_></rects>
      <tilted>0</tilted></_>
    <_>
      <rects>
        <_>
          0 16 8 2 -1.</_>
        <_>
          4 16 4 2 2.</_></rects>
      <tilted>0</tilted></_>
    <_>
      <rects>
        <_>
          0 16 13 3 -1.</_>
        <_>
          0 17 13 1 3.</_></rects>
      <tilted>0</tilted></_>
    <_>
      <rects>
        <_>
          0 18 29 3 -1.</_>
        <_>
          0 19 29 1 3.</_></rects>
      <tilted>0</tilted></_>
    <_>
      <rects>
        <_>
          0 22 32 2 -1.</_>
        <_>
          16 22 16 2 2.</_></rects>
      <tilted>0</tilted></_>
    <_>
      <rects>
        <_>
          0 22 20 2 -1.</_>
        <_>
          0 23 20 1 2.</_></rects>
      <tilted>0</tilted></_>
    <_>
      <rects>
        <_>
          0 23 30 1 -1.</_>
        <_>
          10 23 10 1 3.</_></rects>
      <tilted>0</tilted></_>
    <_>
      <rects>
        <_>
          1 0 6 14 -1.</_>
        <_>
          4 0 3 14 2.</_></rects>
      <tilted>0</tilted></_>
    <_>
      <rects>
        <_>
          1 14 26 4 -1.</_>
        <_>
          14 14 13 4 2.</_></rects>
      <tilted>0</tilted></_>
    <_>
      <rects>
        <_>
          2 0 2 21 -1.</_>
        <_>
          3 0 1 21 2.</_></rects>
      <tilted>0</tilted></_>
    <_>
      <rects>
        <_>
          2 6 32 18 -1.</_>
        <_>
          2 12 32 6 3.</_></rects>
      <tilted>0</tilted></_>
    <_>
      <rects>
        <_>
          2 22 6 2 -1.</_>
        <_>
          2 23 6 1 2.</_></rects>
      <tilted>0</tilted></_>
    <_>
      <rects>
        <_>
          3 1 4 1 -1.</_>
        <_>
          5 1 2 1 2.</_></rects>
      <tilted>0</tilted></_>
    <_>
      <rects>
        <_>
          3 7 3 1 -1.</_>
        <_>
          4 7 1 1 3.</_></rects>
      <tilted>0</tilted></_>
    <_>
      <rects>
        <_>
          3 12 32 12 -1.</_>
        <_>
          19 12 16 12 2.</_></rects>
      <tilted>0</tilted></_>
    <_>
      <rects>
        <_>
          4 0 2 2 -1.</_>
        <_>
          5 0 1 2 2.</_></rects>
      <tilted>0</tilted></_>
    <_>
      <rects>
        <_>
          4 0 1 15 -1.</_>
        <_>
          4 5 1 5 3.</_></rects>
      <tilted>0</tilted></_>
    <_>
      <rects>
        <_>
          4 3 1 9 -1.</_>
        <_>
          4 6 1 3 3.</_></rects>
      <tilted>0</tilted></_>
    <_>
      <rects>
        <_>
          4 5 32 3 -1.</_>
        <_>
          20 5 16 3 2.</_></rects>
      <tilted>0</tilted></_>
    <_>
      <rects>
        <_>
          4 12 4 4 -1.</_>
        <_>
          6 12 2 4 2.</_></rects>
      <tilted>0</tilted></_>
    <_>
      <rects>
        <_>
          4 12 24 9 -1.</_>
        <_>
          4 15 24 3 3.</_></rects>
      <tilted>0</tilted></_>
    <_>
      <rects>
        <_>
          4 20 32 4 -1.</_>
        <_>
          4 22 32 2 2.</_></rects>
      <tilted>0</tilted></_>
    <_>
      <rects>
        <_>
          5 0 6 1 -1.</_>
        <_>
          7 0 2 1 3.</_></rects>
      <tilted>0</tilted></_>
    <_>
      <rects>
        <_>
          5 1 2 10 -1.</_>
        <_>
          6 1 1 10 2.</_></rects>
      <tilted>0</tilted></_>
    <_>
      <rects>
        <_>
          6 0 10 4 -1.</_>
        <_>
          6 2 10 2 2.</_></rects>
      <tilted>0</tilted></_>
    <_>
      <rects>
        <_>
          7 5 18 6 -1.</_>
        <_>
          13 5 6 6 3.</_></rects>
      <tilted>0</tilted></_>
    <_>
      <rects>
        <_>
          7 10 26 6 -1.</_>
        <_>
          7 10 13 3 2.</_>
        <_>
          20 13 13 3 2.</_></rects>
      <tilted>0</tilted></_>
    <_>
      <rects>
        <_>
          8 3 8 2 -1.</_>
        <_>
          8 3 4 1 2.</_>
        <_>
          12 4 4 1 2.</_></rects>
      <tilted>0</tilted></_>
    <_>
      <rects>
        <_>
          8 22 20 2 -1.</_>
        <_>
          8 23 20 1 2.</_></rects>
      <tilted>0</tilted></_>
    <_>
      <rects>
        <_>
          8 23 18 1 -1.</_>
        <_>
          14 23 6 1 3.</_></rects>
      <tilted>0</tilted></_>
    <_>
      <rects>
        <_>
          9 0 27 2 -1.</_>
        <_>
          18 0 9 2 3.</_></rects>
      <tilted>0</tilted></_>
    <_>
      <rects>
        <_>
          9 0 10 12 -1.</_>
        <_>
          9 4 10 4 3.</_></rects>
      <tilted>0</tilted></_>
    <_>
      <rects>
        <_>
          9 1 5 6 -1.</_>
        <_>
          9 3 5 2 3.</_></rects>
      <tilted>0</tilted></_>
    <_>
      <rects>
        <_>
          9 2 22 22 -1.</_>
        <_>
          9 13 22 11 2.</_></rects>
      <tilted>0</tilted></_>
    <_>
      <rects>
        <_>
          9 10 27 14 -1.</_>
        <_>
          18 10 9 14 3.</_></rects>
      <tilted>0</tilted></_>
    <_>
      <rects>
        <_>
          9 16 5 6 -1.</_>
        <_>
          9 18 5 2 3.</_></rects>
      <tilted>0</tilted></_>
    <_>
      <rects>
        <_>
          9 19 2 2 -1.</_>
        <_>
          9 20 2 1 2.</_></rects>
      <tilted>0</tilted></_>
    <_>
      <rects>
        <_>
          9 19 14 4 -1.</_>
        <_>
          9 19 7 2 2.</_>
        <_>
          16 21 7 2 2.</_></rects>
      <tilted>0</tilted></_>
    <_>
      <rects>
        <_>
          9 20 12 4 -1.</_>
        <_>
          9 22 12 2 2.</_></rects>
      <tilted>0</tilted></_>
    <_>
      <rects>
        <_>
          10 16 9 6 -1.</_>
        <_>
          10 19 9 3 2.</_></rects>
      <tilted>0</tilted></_>
    <_>
      <rects>
        <_>
          10 23 2 1 -1.</_>
        <_>
          11 23 1 1 2.</_></rects>
      <tilted>0</tilted></_>
    <_>
      <rects>
        <_>
          11 0 22 7 -1.</_>
        <_>
          22 0 11 7 2.</_></rects>
      <tilted>0</tilted></_>
    <_>
      <rects>
        <_>
          11 1 9 14 -1.</_>
        <_>
          14 1 3 14 3.</_></rects>
      <tilted>0</tilted></_>
    <_>
      <rects>
        <_>
          11 8 6 16 -1.</_>
        <_>
          11 8 3 8 2.</_>
        <_>
          14 16 3 8 2.</_></rects>
      <tilted>0</tilted></_>
    <_>
      <rects>
        <_>
          11 16 14 8 -1.</_>
        <_>
          11 20 14 4 2.</_></rects>
      <tilted>0</tilted></_>
    <_>
      <rects>
        <_>
          12 0 10 9 -1.</_>
        <_>
          12 3 10 3 3.</_></rects>
      <tilted>0</tilted></_>
    <_>
      <rects>
        <_>
          12 6 16 1 -1.</_>
        <_>
          20 6 8 1 2.</_></rects>
      <tilted>0</tilted></_>
    <_>
      <rects>
        <_>
          12 8 4 16 -1.</_>
        <_>
          12 16 4 8 2.</_></rects>
      <tilted>0</tilted></_>
    <_>
      <rects>
        <_>
          12 10 3 9 -1.</_>
        <_>
          13 10 1 9 3.</_></rects>
      <tilted>0</tilted></_>
    <_>
      <rects>
        <_>
          12 18 1 3 -1.</_>
        <_>
          12 19 1 1 3.</_></rects>
      <tilted>0</tilted></_>
    <_>
      <rects>
        <_>
          13 0 16 18 -1.</_>
        <_>
          13 6 16 6 3.</_></rects>
      <tilted>0</tilted></_>
    <_>
      <rects>
        <_>
          13 2 9 9 -1.</_>
        <_>
          13 5 9 3 3.</_></rects>
      <tilted>0</tilted></_>
    <_>
      <rects>
        <_>
          13 10 6 13 -1.</_>
        <_>
          16 10 3 13 2.</_></rects>
      <tilted>0</tilted></_>
    <_>
      <rects>
        <_>
          14 7 6 3 -1.</_>
        <_>
          16 7 2 3 3.</_></rects>
      <tilted>0</tilted></_>
    <_>
      <rects>
        <_>
          14 14 3 2 -1.</_>
        <_>
          14 15 3 1 2.</_></rects>
      <tilted>0</tilted></_>
    <_>
      <rects>
        <_>
          14 14 22 9 -1.</_>
        <_>
          25 14 11 9 2.</_></rects>
      <tilted>0</tilted></_>
    <_>
      <rects>
        <_>
          14 18 2 1 -1.</_>
        <_>
          15 18 1 1 2.</_></rects>
      <tilted>0</tilted></_>
    <_>
      <rects>
        <_>
          15 9 3 10 -1.</_>
        <_>
          16 9 1 10 3.</_></rects>
      <tilted>0</tilted></_>
    <_>
      <rects>
        <_>
          15 18 3 4 -1.</_>
        <_>
          16 18 1 4 3.</_></rects>
      <tilted>0</tilted></_>
    <_>
      <rects>
        <_>
          16 16 2 6 -1.</_>
        <_>
          17 16 1 6 2.</_></rects>
      <tilted>0</tilted></_>
    <_>
      <rects>
        <_>
          17 0 15 1 -1.</_>
        <_>
          22 0 5 1 3.</_></rects>
      <tilted>0</tilted></_>
    <_>
      <rects>
        <_>
          17 5 3 2 -1.</_>
        <_>
          17 6 3 1 2.</_></rects>
      <tilted>0</tilted></_>
    <_>
      <rects>
        <_>
          18 0 12 2 -1.</_>
        <_>
          18 1 12 1 2.</_></rects>
      <tilted>0</tilted></_>
    <_>
      <rects>
        <_>
          18 2 1 3 -1.</_>
        <_>
          18 3 1 1 3.</_></rects>
      <tilted>0</tilted></_>
    <_>
      <rects>
        <_>
          18 2 6 11 -1.</_>
        <_>
          20 2 2 11 3.</_></rects>
      <tilted>0</tilted></_>
    <_>
      <rects>
        <_>
          18 9 3 3 -1.</_>
        <_>
          18 10 3 1 3.</_></rects>
      <tilted>0</tilted></_>
    <_>
      <rects>
        <_>
          18 11 6 9 -1.</_>
        <_>
          21 11 3 9 2.</_></rects>
      <tilted>0</tilted></_>
    <_>
      <rects>
        <_>
          18 22 1 2 -1.</_>
        <_>
          18 23 1 1 2.</_></rects>
      <tilted>0</tilted></_>
    <_>
      <rects>
        <_>
          18 23 6 1 -1.</_>
        <_>
          21 23 3 1 2.</_></rects>
      <tilted>0</tilted></_>
    <_>
      <rects>
        <_>
          19 0 3 2 -1.</_>
        <_>
          19 1 3 1 2.</_></rects>
      <tilted>0</tilted></_>
    <_>
      <rects>
        <_>
          19 0 17 2 -1.</_>
        <_>
          19 1 17 1 2.</_></rects>
      <tilted>0</tilted></_>
    <_>
      <rects>
        <_>
          19 14 6 3 -1.</_>
        <_>
          19 15 6 1 3.</_></rects>
      <tilted>0</tilted></_>
    <_>
      <rects>
        <_>
          19 19 5 3 -1.</_>
        <_>
          19 20 5 1 3.</_></rects>
      <tilted>0</tilted></_>
    <_>
      <rects>
        <_>
          21 0 3 1 -1.</_>
        <_>
          22 0 1 1 3.</_></rects>
      <tilted>0</tilted></_>
    <_>
      <rects>
        <_>
          21 4 8 4 -1.</_>
        <_>
          21 6 8 2 2.</_></rects>
      <tilted>0</tilted></_>
    <_>
      <rects>
        <_>
          21 16 3 8 -1.</_>
        <_>
          21 20 3 4 2.</_></rects>
      <tilted>0</tilted></_>
    <_>
      <rects>
        <_>
          21 22 12 2 -1.</_>
        <_>
          21 23 12 1 2.</_></rects>
      <tilted>0</tilted></_>
    <_>
      <rects>
        <_>
          22 0 11 3 -1.</_>
        <_>
          22 1 11 1 3.</_></rects>
      <tilted>0</tilted></_>
    <_>
      <rects>
        <_>
          22 4 14 18 -1.</_>
        <_>
          29 4 7 18 2.</_></rects>
      <tilted>0</tilted></_>
    <_>
      <rects>
        <_>
          22 14 4 10 -1.</_>
        <_>
          22 19 4 5 2.</_></rects>
      <tilted>0</tilted></_>
    <_>
      <rects>
        <_>
          22 14 12 10 -1.</_>
        <_>
          22 19 12 5 2.</_></rects>
      <tilted>0</tilted></_>
    <_>
      <rects>
        <_>
          22 16 2 8 -1.</_>
        <_>
          22 20 2 4 2.</_></rects>
      <tilted>0</tilted></_>
    <_>
      <rects>
        <_>
          23 0 6 1 -1.</_>
        <_>
          26 0 3 1 2.</_></rects>
      <tilted>0</tilted></_>
    <_>
      <rects>
        <_>
          24 7 12 15 -1.</_>
        <_>
          30 7 6 15 2.</_></rects>
      <tilted>0</tilted></_>
    <_>
      <rects>
        <_>
          26 17 2 5 -1.</_>
        <_>
          27 17 1 5 2.</_></rects>
      <tilted>0</tilted></_>
    <_>
      <rects>
        <_>
          27 0 8 24 -1.</_>
        <_>
          27 0 4 12 2.</_>
        <_>
          31 12 4 12 2.</_></rects>
      <tilted>0</tilted></_>
    <_>
      <rects>
        <_>
          27 20 3 4 -1.</_>
        <_>
          28 20 1 4 3.</_></rects>
      <tilted>0</tilted></_>
    <_>
      <rects>
        <_>
          28 6 8 8 -1.</_>
        <_>
          32 6 4 8 2.</_></rects>
      <tilted>0</tilted></_>
    <_>
      <rects>
        <_>
          29 1 5 18 -1.</_>
        <_>
          29 10 5 9 2.</_></rects>
      <tilted>0</tilted></_>
    <_>
      <rects>
        <_>
          30 22 5 2 -1.</_>
        <_>
          30 23 5 1 2.</_></rects>
      <tilted>0</tilted></_>
    <_>
      <rects>
        <_>
          31 1 2 4 -1.</_>
        <_>
          32 1 1 4 2.</_></rects>
      <tilted>0</tilted></_>
    <_>
      <rects>
        <_>
          32 2 3 16 -1.</_>
        <_>
          32 10 3 8 2.</_></rects>
      <tilted>0</tilted></_>
    <_>
      <rects>
        <_>
          33 0 2 3 -1.</_>
        <_>
          34 0 1 3 2.</_></rects>
      <tilted>0</tilted></_>
    <_>
      <rects>
        <_>
          33 0 3 2 -1.</_>
        <_>
          33 1 3 1 2.</_></rects>
      <tilted>0</tilted></_>
    <_>
      <rects>
        <_>
          33 17 2 3 -1.</_>
        <_>
          34 17 1 3 2.</_></rects>
      <tilted>0</tilted></_>
    <_>
      <rects>
        <_>
          34 14 2 4 -1.</_>
        <_>
          35 14 1 4 2.</_></rects>
      <tilted>0</tilted></_></features></cascade>
</opencv_storage>
